0.133439
-0.507331
0.415126
-0.497386
0.729455
-0.207515
-0.009459
0.322654
0.765931
-0.087665
0.309802
0.193699
-0.855696
0.265781
-0.907266
-0.068102
-0.094638
0.000000
0.000000
0.000000
0.246153
0.146601
0.000000
0.000000
-0.328420
-0.299341
-0.155633
0.000000
0.088104
0.243501
0.000000
0.155403
-0.403491
0.383305
0.000000
0.386239
0.000000
-0.313180
0.035601
0.299638
0.210875
-0.213525
-0.021895
-0.234107
0.056820
0.059741
-0.368782
0.000000
0.000000
-0.417627
0.000000
-0.222529
-0.030873
0.387430
0.000000
-0.112696
0.311247
0.000000
-0.010383
0.058154
0.075924
-0.426822
-0.108837
0.000000
0.000000
0.284798
0.000000
0.382302
-0.244350
-0.304119
0.000000
0.000000
-0.219666
0.145582
0.162197
-0.370368
0.212319
-0.164571
-0.246703
-0.213361
0.350573
0.092980
0.132440
-0.250239
0.000000
0.274660
-0.141385
0.276578
-0.265400
0.000000
0.000000
0.285190
0.152785
0.000000
-0.416196
-0.325668
-0.418184
-0.427494
0.306126
0.000000
0.000000
-0.109580
-0.395163
0.000000
-0.303101
0.384453
0.334870
-0.176111
-0.426983
-0.423800
0.025511
0.000000
-0.139485
0.139280
0.000000
0.120506
-0.436889
0.000000
-0.287636
0.265443
-0.077517
0.000000
-0.173466
-0.239242
0.000000
-0.081672
0.033246
0.000000
-0.086741
-0.157681
0.000000
0.173556
-0.340771
0.183411
0.399144
0.000000
0.000000
0.197779
-0.265513
0.000000
-0.161956
0.438670
-0.299340
-0.288427
0.000000
-0.199649
0.327910
-0.056195
0.163564
0.000000
-0.201653
0.000000
0.000000
-0.217158
0.000000
0.057531
-0.003245
-0.282546
0.355301
0.121938
0.000000
-0.403099
0.000000
0.000000
-0.042671
0.000000
-0.244792
-0.010237
-0.054384
0.195375
0.119853
0.264489
0.250438
-0.069427
0.000000
-0.153223
0.433413
-0.080295
0.225991
-0.369116
0.000000
-0.151384
0.000000
-0.421192
-0.219432
0.259479
0.000000
0.000000
0.000000
0.269576
0.441748
0.124345
-0.140762
0.000000
0.000000
0.000000
0.002214
0.000000
-0.008939
0.000000
0.419945
0.000000
0.000000
-0.030808
0.000000
0.009304
0.000000
0.000000
0.000000
0.003885
-0.012130
0.000000
-0.039558
0.059376
-0.187084
-0.290275
0.283127
-0.159942
0.000000
-0.279309
-0.077261
-0.189816
0.172575
0.000000
0.075945
0.000000
-0.321485
0.359432
0.322521
0.351845
-0.005811
-0.380001
0.000000
0.000000
-0.068555
0.000000
-0.180908
0.043739
0.000000
-0.110676
-0.035587
440.064207
-1020.873250
-534.287758
-1901.639296
-60.420886
-556.559079
704.161993
1528.245165
-1665.001767
-1587.042309
1442.685521
1799.709252
1754.430098
2690.907392
807.444961
0.035438
0.003116
0.039186
0.009907
0.030115
0.021067
0.036302
0.035363
0.003571
0.020694
0.013745
0.008492
0.014427
0.010831
0.030465
0.019122
0.003960
0.011016
0.031777
0.020559
